0.12134317630937352
0.02768260437544212
0.5253179654439223
0.9797234581367736
0.36545487815536903
-0.34932107986744676
-0.23463178895022319
0.4189429548167627
0.3135260762143892
0.2328782013583881
0.5910774940332439
0.09321818846501514
-0.715820794747265
-0.299353496766687
0.050280088953854385
0.6575062837110695
-0.5616659307632272
-0.3366218514344014
0.2841780437070914
0.29244972940980746
-0.05693132517200028
0.34400379917344326
-0.5024478000362232
0.1944351498740494
-0.2137503694722891
-0.38815380190254734
0.25260048340503144
0.03914026410401217
-0.9353263050162577
0.4583562568278434
0.3511588153099261
0.06143958755864487
0.7976132024666909
-0.720562227758439
-0.10911470473005025
0.3620412563697764
0.1421470265089404
0.2626754195179939
-0.24625591434512717
0.32489754315583586
-0.4637035699574308
0.5130177745388793
-0.020062068102356
-0.6166914705995623
-0.4032216152536059
-0.26952323741299944
0.8047877092244811
0.2393391600885182
0.6209202635752895
0.304082941431286
0.1723608200233302
-0.7095991776286296
-0.6772127199858431
-0.2969558762037714
0.7148154335234049
-0.8531583091232862
0.965041850891345
-0.18438010567491048
-0.4703835044520004
-0.3577326183695895
-0.6702155467820411
-0.07101197684105387
0.23614861326115258
0.17705863604533034
-0.07928118244776083
0.10199595835804653
0.7924200568453754
-0.11258910788917198
-0.0068200137702993935
0.10933062851446886
-0.5319404996168094
-0.21598432804752343
0.6225878992380534
0.7438837184677103
-0.10145112274764345
0.5486135718973206
-0.07624865646171242
0.46479211027683665
0.7423787077302756
0.32077744306979694
0.2187541768159471
-0.2511078113169487
0.26844535646774403
-0.5433354296412761
0.3335983573754193
0.5880342380176167
-0.21387669407016952
-0.34134220756273603
-0.7273523684668802
0.1869341213165796
-0.11797439970431922
-0.5445005900023622
0.19734365979644686
0.31791053156293914
0.5602845697896899
0.4593664404660496
-0.46298877235238856
-0.02501076160600091
-0.6201117307348172
-0.5181705118317596
0.48896791450417854
-0.2518285368887676
-0.5340783163905107
0.4705785227404191
0.042197041619717046
0.10227674844606827
-0.19881174433508408
-0.14190166995625508
0.3152857321202187
0.4116029918806312
0.0336290074125718
0.004444192344329023
-0.3890511402990633
0.32155109845702645
0.12613418149960717
-0.6953470584350719
-0.47260661872371346
0.5096857893997728
0.07411108734640726
0.1189952623779087
-0.08331066130465836
-0.3469507392279638
-0.47018183751409814
-0.6408856637740793
0.3753047765294708
-0.07295210878571856
-0.06995877987481847
0.5777431464467873
-0.9062350952765782
-0.3589942043318042
0.3592530535853126
0.6784959258016505
-0.3944893309408941
0.4467623381129444
0.7956173089421723
-0.14265176437601712
-0.2302182171430358
0.1481885616455907
0.031917649906604284
-0.4482221410213225
0.1077749402917445
-0.19138375830384524
0.8462170805414799
-0.31182949863733267
0.18577188544161038
0.34438805116815163
-0.35957301295790156
-0.1338143797251632
0.3691529995508156
-0.88955831977267
0.07347562254799644
0.718276133489296
0.25158760848508654
0.24622814566526482
-0.3091561549095545
0.6745318862648333
-0.04784220077697465
0.42918542699433776
-0.26289527362053144
0.358356751515958
0.03393405456147591
0.7454748746138038
-0.034695200609932586
0.6342419430815879
0.19054973669339526
-0.02796121000913787
0.028084510890654224
-0.3789080275983798
-0.4680173476048589
0.6508317987431995
0.2267547258244278
-0.027149773004502276
0.2680217344453368
0.964887249347854
0.3145350818977958
0.21085245880315018
-0.05629326939130885
-0.6854093865043043
-0.06991177671332993
-0.06977520323208974
-0.6116970691749231
-0.4218002122267851
0.10881835177922916
-0.35392283691179793
-0.4236968295791913
-0.4069557983621296
-0.06276227442922211
0.42165372389397016
-0.7927135737104858
-0.025101933355143102
0.6186858183405866
-0.14766228528084913
-0.18178180868610905
-0.6501808752224321
-0.08302714745638695
-0.5854395023520849
0.26287043500053503
0.09008054338008258
0.025106673950016756
-0.25469480725584226
0.34902370445423236
0.0979732560111557
0.011283987665361206
-0.2884547865676368
0.24144289607237263
0.1487707082781381
0.02947791835790481
-0.2216071129288053
0.2424340262430473
0.2938691219171008
0.06683573111025283
-0.6040578662673135
-0.12911545539098435
-0.23453026342962513
-0.4659967466155085
-0.06534233573572112
-0.3891560730136273
0.19840099718301504
-0.20131173028349136
-0.2515334554040136
-0.7393997486285788
0.06559710701734693
0.8163184235226604
0.16343651743772059
-0.04473175831881915
0.35477058308464904
0.7418456726681414
0.1458298725142264
0.5653636343509356
0.16885892005599873
-0.3821883991851307
0.019115283389348425
0.47083895914387175
-0.3595997164842428
0.26865189406655543
0.33630613877656446
-0.4938730082032232
-0.8415415662461664
-0.5191277302639604
-0.41737900576113074
0.22545462762439716
-0.24510196221306213
-0.037917919494149466
0.17147448317433578
0.4078640276527392
0.21183319808663548
-0.07246650599189985
0.41156530125762525
-0.9624528908892803
0.12894231894376174
-0.6282152883664918
0.9237532834076958
0.4480384940417036
0.22335482397696935