-0.496815490269757
-0.6220639917221703
0.6573242507264199
-0.09289413279789305
-0.047393136339566544
-0.4166724589128503
0.19943729089024886
-0.3067821379217144
-0.36606237889452653
0.8471855077800807
0.057004220046612986
0.6613861046226588
-0.8041509014399191
0.3165502265154736
0.24255914278077073
0.5351380652132944
0.46589983832643034
0.0327694975230699
0.07569384343344532
0.2528629200798289
0.18187792223708543
0.23214740223535024
0.6658859459801119
0.5506734156251953
-0.1709951994738943
0.05634073812478935
0.5534372111946515
0.646476623658711
0.32212100724842396
0.21687229814808714
-0.8013548996320832
-0.9069571225478837
-0.06392002224368643
-0.4983309966967686
-0.6143704842101909
-0.11558339810177698
0.07484216483337369
-0.19098034016054155
-0.6575709308232158
-0.2820187894311347
0.13903804236066208
-0.020493893695654353
0.380370226514271
-0.5303577449553931
-0.6647018748836804
-0.08598048614419707
-0.019570711859872025
0.02917209582000524
-0.5620668018529313
-0.3594475608707932
0.00010538072771471008
0.8119194876553308
0.04534707964155471
-0.43673916903275434
-0.04117385779970595
-0.008068129408263625
0.41086734375902845
-0.7926505092835872
0.23119299464253107
0.13187457837059458
0.22718508868289633
-0.44878106733485235
-0.2661118973359009
-0.37809874012936984
0.6490956412865366
-0.28362491003550394
0.27922392389210726
0.10592128230570874
0.38248196879081675
-0.3481794541699209
-0.942508056520139
0.17013534478126502
-0.3970503196502402
0.09580153658230395
0.006228074973590347
0.38502777108758623
-0.5181630549952504
0.16317773517469236
0.2553697168609299
-0.17783256583303153
0.0452256197653802
-0.11167167657676391
-0.01627324367045546
0.11790819236844907
0.04008257801903725
0.5202327808379859
-0.3876206929475693
0.7298285595786003
0.548186933663396
-0.7118110208269702
-0.150134053971413
0.010684346304676406
0.01950610093181271
0.14222194449117498
-0.1228548455239793
0.10028423957701538
0.3868461777896772
0.5297479655172554
-0.021426674074098373
0.43471900278926645
0.09115411626010617
0.43642384699286074
0.5241069005648219
0.05586751523334099
0.5489695048643757
0.05898636475960517
-0.2787801490803037
-0.130998023673768
-0.0015630069889934761
0.061318330167996926
-0.6741456955714236
0.33654160652017096
-0.5944263888906856
0.7573351688120283
-0.7725771915281396
0.5798881950731485
-0.7831459400016324
-0.2235350137502431
-0.6904685698913041
0.8737836378997277
-0.1492772322645336
-0.3510197023750252
-0.18823269756106997
0.05989179649139009
-0.35523998389441447
0.24133736814220663
-0.0012690819530835062
-0.4442550467996247
-0.738665023399672
0.025554211496137347
0.4798604616066262
-0.6293991699287532
0.19298883060558092
0.8254366578021424
-0.06798179241561608
0.5557383493187082
-0.7732489065037332
0.438762592770378
-0.6010271676941008
-0.47198132883316113
0.06355936141379503
0.06657346550708265
-0.15251423571387746
-0.027886489346109156
-0.04404615651004651
0.3324609412156332
0.5748600703889353
-0.4601034027909304
-0.1000368909391327
-0.03543239280065291
0.05389740274439705
-0.24770288535352114
-0.5645503228029043
-0.009621498958154562
-0.431203975006871
-0.17016216051907895
0.1177885320413159
0.2813989100482362
0.18755977350679354
-0.22223372161795762
0.10949822918413621
0.03080974689711491
0.5584294048234439
0.4104290297702342
0.7807958417886034
-0.08512977481950723
-0.3490249240178983
-0.2531610206411421
-0.28867958999001797
0.49889698389523063
-0.4284903196981781
0.6111138866455903
0.794764866113238
0.6564376340991092
-0.5808438296673475
-0.6270140469133398
0.34408713645977884
-0.09662280208046403
0.44499685178698556
-0.03767793688530108
0.1924238243813572
0.83794482587994
0.023314410147484477
0.6908912664213518
0.5618790120331224
-0.3422817976655097
-0.10781388649598234
-0.3376608720892128
-0.21886816037203538
-0.33976637634632256
-0.5516843889948462
-0.130103586874035
-0.2638699350311995
0.5289718659629705
-0.20067528314727734
0.17122396020588654
0.3616932705743252
0.03983414185495304
0.7614291824890664
-0.22344852875596755
0.03489784789362238
-0.2784431504358018
-0.45481673415915047
-0.513080315083713
-0.26555334373444794
0.32103584008324987
0.7052300014632378
-0.6827419513848523
-0.57720856167647
-0.018318480450983055
-0.9011197336325358
0.2950047636114199
-0.14850997518622533
-0.4388325213745019
0.7520144813539877
-0.3483053770317086
0.07546606182138782
0.4308997671192123
0.27724476372832396
0.6906586574784259
0.5593937517814243
0.562275550038521
0.5747154321774097
0.6772043660290317
-0.16069520575775453
0.2448595178125479
-0.061474277173740655
0.05775055492211534
0.12196416324517956
-0.2625081095302144
-0.08309118729222442
0.6157117522792199
0.2440612233758994
0.023098489271847544
0.10725739970414061
-0.0935173553121621
0.16738816856329275
0.003831430221143739
0.4025276410973577
0.7313441463949446
-0.24649538064811272
-0.6444454017917962
-0.3199263704764921
0.11740653845649596
-0.4196690502343867
0.4029915637488988
-0.04241520834230916
0.07061520439246038
0.9915599745090872
0.41281001754398705
0.30491199751252357
-0.5377462479604123
-0.3534346495887096
0.21673930055226465
0.14553015668242342
0.5279561208620625
-0.024617748370324488
-0.3151438903212289
0.3555525042974139
0.4853974334040778
-0.8459257123648805
0.3039360505917355
0.3965846160178559
0.13760362913882473
0.07228001749966984
-0.32972049890946264
-0.21959499550362516
-0.23591513178822943
0.26330815739206614
-0.18887550771966666
-0.08433849017608819
0.7058764802498851
0.8323357255779502
0.3410920656761527
-0.20471175139311826
-0.3119221704658095
0.1997818987570923
0.4913219286405555
0.3148308990097082
0.0916686602052521
-0.12019957156865102
-0.11972548699190622
0.736729100363759
0.04894695609460209
0.5630989477967749
-0.32182528639415264
0.5639823047281691
-0.40826390385567124
0.3452112699955656
-0.018586269257172106
0.21272655257550202
-0.11245460206164282
-0.6048735573067481
-0.18571573159189425
0.18052148740490925
0.513742108860332
-0.6792778648227034
0.5246557564625048
-0.11370403859215694
0.15308539309510305
0.008197358465896531
-0.15935819748222624
0.5579743026100998
-0.4758899028937651
0.7589288111421664
-0.5582392905329592
-0.13466101079704695
-0.6336855197996735
-0.350801887392689
0.662980328944518
0.716182624637127
0.4723481734617505
-0.2895312874221373
-0.13003440194412452
-0.23454230205967608
0.01970753430125316
-0.14393171130978366
0.2636475502065885
0.7394618939815087
0.011905406550060782
0.23324005610122556
0.16492496748687913
-0.4203508745419404
0.09660123226826478
0.24504928412524563
0.9100284030802048
0.2810924217550588
0.6507526961978871
-0.5848677450810094
-0.247887979086315
-0.29035524450218353
-0.49480404637356545
-0.4860590257940023
0.22135954480450337
0.7607622816037134
0.12404150475714397
-0.5962994794161469
-0.12148340180784611
-0.4691212028136792
-0.052124571143013054
0.15934458047618372
0.31034088112372205
0.4930423428357986
-0.22463549156666596
-0.11317953333587916
-0.48496837436240914
0.9961299891732837
-0.14657866244370488
0.1595268067269593
0.6897504590302292
-0.7695506088082471
-0.29080687765273094
0.5081864605361419
-0.20021609632552706
0.1049332581270237
-0.24419916357845572
0.12890812330781032
0.786971180703977
0.0951322650893524
0.9860841299141738
0.016215150039829762
-0.5383680232309703
-0.4297790727080357
0.008157221978960294
-0.11859495890718619
-0.08920364672048031
-0.030893389329083698
0.6048979376872371
0.4557201049665827
0.7639123315485903
-0.12196351169201214
0.16990251914292576
0.4441359996969364
-0.47375261105769007
0.03211188615691185
-0.5828864590381009
0.6494052554697001
0.7877895552181629
0.14677108067230238
-0.2876832679739366
0.12174982742795204
0.01045615142642986
-0.4942594787673831
-0.016517463024652512
-0.021021469949845883
-0.33794630229461164
0.40797664937810163
0.13248713347604557
-0.5054057988574537
-0.6439536024263726
-0.34064965024030347
0.49713334711462576
-0.350586293492802
-0.47863821527921935
0.04584535824164915
0.8553401316190057
0.012339666986828757
0.2182433561501449
-0.2987420974890125
-0.36026849953038553
0.09868662862972499
-0.4050558891683912
-0.16528759774643675
0.5466242938598106
-0.19440676958695569
-0.24390076750727718
-0.2028231704690292
0.3803075282146491
0.34282151914896497
0.31726779242750996
0.019703244138684184
0.19031395416029429
-0.3542970661517143
-0.1204271104581276
0.005612635622887829
-0.6687224902129782
0.24466513025383538
0.12530718166524957
-0.06456097299775754
0.6774612888219949
-0.44568093644605744
0.49971440413208357
-0.5785057557129641
0.41912668157059363
0.07538293050982503
0.2511552409414213
-0.9607790060384999
-0.10591268538010223
0.2264905475040202
-0.17730068619810635
-0.33840250119142934
-0.7491414619604244
0.8144261497860981
-0.11006738216533807
-0.008075402547276678
0.2647858042559177
0.7138371881557195
-0.6775196862089672
-0.25351512050725444
0.14222189071614233
0.03940228435590949
0.48987153111176074
0.7467473312631303
-0.5617415984123635
0.05080192881207002
-0.06763719233798526
-0.10878157697453983
-0.9197784647571184
0.308564768690224
0.1835935183223203
0.015906285401789066
0.2852286999909839
-0.21630485280410383
0.07191021576078671
0.6076633593827654
0.5267285126170842
-0.18581418311422793
0.3577625404264493
-0.1711004426404502
-0.13071058847505457
0.26229314592815944
0.5100918756314388
0.1471012100744702
-0.5670288468782924
0.07198907942043033
-0.2693980136086047
-0.551113042914992
0.3167674610627107
0.7789987948499415
0.16377994489822775
-0.06194990432616765
-0.34103626115130725
0.4000605594841795
-0.4121656619869425
0.00683398861662644
0.32996199108589486
0.23603354817903965
-0.5063947643818874
0.16901201280615408
-0.632177494473684
-0.4955531183173353
0.37911043330680866
0.9166703716458264
-0.6921039753388916
-0.10804748605046655
0.0755473034591021
0.7680979129565557
-0.14976809252402878
-0.06684464456179262
-0.018469533220292766
-0.06850967119274043
-0.1536796214694417
-0.3530914454322981
-0.05830856001658613
0.3559619513328769
0.033393123635289346
-0.4184924422990952
0.706151714151193
0.37771614552355715
-0.5463282663186595
0.5164532307460292
-0.6188378740407201
0.7086974545131346
-0.1919961083894649
-0.2804678982895119
0.6482915123420097
-0.6444995470478627
-0.2177988252802755
0.35311481163015523
-0.025676263893675944
-0.0816219114281006
0.6821196046268732
-0.09838912272876632
0.25243628858036526
-0.15171892944370868
-0.5820540937903638
0.10323239541683882
-0.6195242486497456
-0.36988101886650393
0.7188345476632787
-0.5456016422504296
0.4073564011273021
-0.1789261509502451
-0.3945698019210725
0.4246177199523691
0.4492721468119387
-0.13630300696398112
-0.11362426682855686
0.10959956698284783
0.6239989272905566
0.4541508260043112
0.46258039567027653
0.881289668702607
-0.05512012426798307
-0.7058833847989006
-0.09518171122545305
-0.06747885914864116
0.06907224143330559
0.29686264764162607
-0.8707189010126006
0.26936597521346317
0.1680745320183359
-0.31629254881907887
0.15629199922512005
-0.18487110480109115
0.1714072107253488
-0.4587391757361209
0.28535753751304616
-0.2558950765931438
0.12657936711890638
-0.4106267049483193
0.9347506958739177
-0.0605378727941881
0.375461787704769
-0.858132947061454
0.22634935193599448
-0.2314997355461743
0.020695056007344448
0.5055435558747743
0.33522597541477595
-0.2862180672962191
0.8702968284305737
0.08443836642385949
0.6612724865179052
0.22957553221561433
0.8119713741671506
0.047676676304891696
-0.13174659598277805
0.5511785732816321
-0.43500501371547706
-0.39034940646465044
0.6929183928817144
0.232082274620506
-0.016756064354928935
-0.1857730752264074
0.5390156267605244
0.5522588392541365
-0.04379167991432986
-0.06341146186448876
-0.4552744390139499
0.22813807139047304
0.6042185736312973
0.1774520351200648
-0.428693480172181
0.6168457768223254
0.0032187484011891865
0.025834906379672118
-0.03331378628992787
0.17649623906353273
0.3362940734601423
0.21983625401731022
0.6141265355022738