0.06250901080458116
0.6140433639033828
-0.9285355815620673
0.39683119839105685
0.5988918067799589
0.5024247777662894
-0.7853253380674774
0.6594181287721388
-0.15902961301577756
0.1869051085942106
0.6823694624356922
-0.42551735943298974
0.32013575956859075
-0.5949724866276882
0.6911306945423185
0.2616337972210372
0.16531860584671523
0.6783762370785075
0.23063580887217494
0.20858779229667188
0.6925206792332919
0.38477345051528444
0.9929380572251972
-0.05324224605285588
0.4220564398008515
0.4851679886672056
-0.056874520193749944
-0.6582990756344269
0.5872947632369421
0.27110533521173075
-0.07691720557682502
-0.8362719258168148
-0.6327668569694141
0.3148444228057478
0.5693444032940786
-0.03625370364329339
-0.21057668917630268
0.20344644412462837
-0.5021720553481477
0.08061224776289366
0.11856636577177748
0.07171859000355885
-0.4957262793022824
0.0645353176712169
0.7519657143500043
0.21819465798740914
0.28927574104977727
0.04840866511249514
0.06438552783691476
-0.03590779264503685
0.5514015892945379
-0.46163702616752045
0.8813029939462247
-0.6536479909766155
-0.06332470187212436
0.6996100706754517
-0.5774493546195865
0.5368226347353259
0.7218740902936522
-0.04331322952374217
0.14430827554164627
-0.3924884945037266
0.6245359912037743
0.2499226504292762
0.12112993337019295
-0.2126775279886146
-0.07262898059122602
-0.16842855262834022
-0.19297506326598557
0.33592551161735185
0.23502265048346116
0.05240140657799097
0.16157242733281194
-0.6746126206310468
-0.05628843529643124
0.1786383892498442
-0.20843222772919778
-0.041816401715968676
-0.16048784479702716
0.08645841056760961
-0.11895654095887465
0.8478772950806183
-0.029612211056648352
-0.6699522375256328
0.6719718598462833
-0.3601193630413049
0.345191465486792
0.2978962270818908
0.20048230133945788
0.5041385955617147
0.3116388492502819
-0.2617171266266811
0.731667421852053
0.08153954002131325
0.6131790639548866
0.7400776801311846
0.04467776185140737
0.08690916208390131
0.2265026700411967
0.8464043501389722
-0.17810705671182836
0.11499801035216373
0.372736100964175
-0.164982613570968
-0.21229684613645072
0.20497845889382038
-0.4199879110636813
0.21725707570450326
0.5376855501277205
-0.25284842240071004
-0.05366896918030328
0.7707306733758812
-0.12180220074645953
0.5748495502239366
0.5063406765634424
0.5984345827820321
0.4136740151871689
0.6819686591934015
0.3948306761341396
0.8280055282977616
-0.08718082695240592
-0.22823319923959606
0.06366950504592794
0.3876019913324913
0.5064926151685972
0.019700206274874565
0.5216134019348169
-0.16067899567011845
0.20883568404229913
0.3681519911386082
-0.08365596156045829
0.650929845000479
-0.27697606552187515
0.937356414445573
0.31025656129648693
0.49772579096145986
-0.07205181817412643
0.5662528667725373
-0.02014382429599948
0.13528782751492052
0.23602758311985467
0.033583169644228805
0.6407409736477612
0.5021403910427655
-0.06817665443334064
0.2713766254318568
-0.6120708973599622
-0.42694845382939295
0.23572980723473957
0.8010814697810761
-0.0005090918482477669
-0.2522801639933854
-0.5890065828583013
0.28387458109956565
0.739388927161691
-0.3759748038630476
-0.21242005762961813
-0.42916279513997657
0.5002269557035994
0.24723042911003068
0.3870539564137834
0.11974141110282965
-0.05172956819918739
0.6646433601371913
-0.2629516156498839
-0.16606035322100632
-0.4833954869874727
0.596458649306191
0.25425792068867925
-0.6069627514413158
-0.5595813954354444
-0.20698972159069862
-0.6453006201567765
0.531978016330914
-0.06559125550335632
-0.03940268481217757
0.2043931137318462
0.4898203543319075
-0.48519697324150046
-0.17181887940597185
0.22534957331940816
-0.29516267985666844
-0.18458913731240933
-0.5854882653656672
-0.00015258289887987164
-0.07663540276534886
0.7441901323667679
0.40062310327324835
-0.3719169900237319
-0.30463554134726045
-0.4104434143995632
0.894872788583971
0.07736141078693093
-0.2558688390989483
0.06419979851564883
0.42771940003063946
-0.09926752482400092
-0.5353071265453273
0.11379934834576577
-0.5508436659307545
-0.02492979204888568
0.6358062489060496
0.21949116485877673
0.42305532211440866
0.09433481836550706
0.5942120111877398
-0.4795481959257438
-0.3135864822537562
-0.36932414803675473
-0.32331217560765313
0.3801316761974598
-0.48166129687514725
0.7662525932289155
0.5428521901214721
-0.40354999307955375
0.36491316921355565
-0.4010857198673683
-0.36240130500881007
-0.23994930087105348
0.5927454318628905
0.2382259641805702
0.04723942311096674
0.037942483961588946
-0.28622359362933936
-0.5118569422864412
-0.4647539822479825
-0.522172089438326
0.6801053206949478
0.17337474321768065
-0.010309922345561828
-0.01268834866797508
-0.777803180836411
-0.39429789845464813
-0.44082113458156014
0.6959221489549081
0.11438097376631705
0.49588540171437945
0.6192592405869695
0.06228494010345842
0.21538276139839885
-0.17394744022188569
0.1893578088564134
0.38901867598981016
-0.010604126341026254
-0.1429429628987805
0.48575170217469377
0.09324785077829101
-0.4760340158532348
-0.30108010141982033
0.05723964982195118
0.11426475402203162
0.4952167385809614
-0.16556012265428333
-0.138859332029595