-0.3480364107107289
-0.2440316911966781
0.32611981157348513
-0.15972639820678336
0.09307695217697165
0.12595894504396488
-0.5394317325840415
-0.4413499787546197
-0.3267466449563169
-0.446594033423408
-0.3799635308008703
-0.634104028336399
-0.4107757738481542
0.27575446616755483
-0.5970772126885796
-0.04310737272978571
-0.07192383168031458
0.3416933788700076
0.18705194340511477
-0.5548889045288274
-0.3691441934686486
0.39671559393543476
0.030961383430737843
-0.24822413391047515
0.07745924297274653
-0.06787316188501846
0.662156418483471
-0.3906830937569724
-0.7315112354301001
0.14190107705359534
-0.7147816056099152
0.6684103352512634
0.19402155498897655
0.0821799439251063
0.055098741150080954
0.3775118968959066
-0.5981147039022386
-0.19092798276394563
-0.09660766641941343
0.13105903599341096
0.28303352278381744
0.2662000285271582
0.11702618793648734
-0.8434966141504856
0.36382150039471517
-0.8786397660147587
-0.39502355873817574
-0.8020102441350404
0.11481346872338705
-0.07985015312759502
0.3168272911305601
0.4749277669681282
-0.15766205216320262
0.18561404724194075
-0.18798219125892945
-0.07101375923644926
0.38688988670526436
0.20777970734242412
-0.8614391904392753
0.335724043884855
-0.5195064368908209
-0.29899992861488434
0.4022650396971017
0.30760217613815577
0.04088382567169324
0.6224114296544307
0.4361242081447996
0.015170352591086012
0.7477732021968531
0.10732391765849592
0.3575315154826866
-0.37385059639808216
-0.3555236673412324
0.5937615432793355
0.33524797075318036
0.5104762009472468
0.024391182242365694
-0.20862889815808083
-0.31399274521091225
0.23273202462331088
0.2019632365314763
-0.6071804099805314
-0.3792622021967884
-0.598031781436587
0.37034239422157644
0.1155719018202348
0.06187791193122116
0.021848512206203985
0.10247869234291662
0.4696447129712227
0.29603959479732267
0.5056368076570408
0.07374473658395098
0.39629409311823593
-0.7501667559712302
0.34349954474004774
0.09468823801135562
-0.8880586620560569
0.3916154548248807
0.49575039952047284
0.5300914124194942
0.624152536274579
0.23483575325347283
0.3949064552752475
-0.0593781991305663
0.651282651694832
0.13231119233474553
-0.34354535407786246
0.4209302835110187
0.10541841393160878
0.425940666574939
-0.42237273748019954
0.43848951397305824
-0.013233951887958617
0.26890512631069363
-0.5154909968548733
0.04366971855566115
-0.3596688900034427
-0.39489473754394333
0.4653487780975687
0.30993171166029
0.15691668625911115
0.27950583633598614
-0.0513408299495165
-0.38379543300350005
0.06011695726214872
0.5351095264606065
0.07891036584289113
0.19847936967439384
0.752936812905959
-0.1309845611314474
-0.09955181035552163
0.20530155630692826
0.36717756898367027
-0.4346370143077991
0.881079220606052
0.2781631583920874
0.1253112011448625
0.08470251662488737
-0.22386569127086664
0.23690251187209777
-0.3008597877642325
-0.38789648075273664
-0.4490801403844997
0.09564196671343672
0.11143623448774775
0.6612860928261366
0.23028118783835438
0.189891884295879
-0.4459535378886763
0.2304913844331793
-0.08017661397381792
0.04793649249051324
-0.26359207110951044
0.04531189592577989
0.28565179194193346
-0.08040146442892393
0.5967833609732869
-0.40824995766728955
-0.1342374549702009
0.48847045130082334
-0.09886294561874986
-0.6393428440703963
-0.50417718354889
0.19774502919151704
-0.09423588362363189
0.18131756985120706
0.6925029515621057
-0.13549786321917812
-0.6124375414806802
-0.5789328821908495
-0.5508266256270976
-0.15583875184186802
-0.13531724881566576
-0.6172266841723263
0.3586829101679063
0.01107392152823361
-0.19178805061253024
0.6871541974781405
0.1243200816973371
0.907027753769768
0.5645664284937444
0.17351914078353725
-0.09726282875202474
-0.3847155052866855
0.11793427249555521
0.031477616069379044
0.25998919997460024
0.3365622385516627
0.057020717592885184
0.5443832533927204
0.0883938124989716
-0.3406485265045458
-0.11099333846998571
-0.18125062532827496
0.642726647340172
0.04196823200319133
0.334472300814632
0.5621410722833602
-0.09140677895090321
-0.038825480240033405
0.3520680590352687